[ 3.12205292e-02  3.20471190e-02  2.01613680e-02 -1.80250108e-02
  5.31948730e-03 -1.58490278e-02  1.53648444e-02  3.51544656e-03
 -2.14076638e-02 -1.62374228e-03 -3.63896415e-03  1.95526853e-02
  1.99840404e-03  2.04169564e-02  1.73556469e-02  6.90098479e-03
 -3.03005949e-02  8.75618123e-03  1.41893346e-02  7.21797347e-04
 -3.01008672e-02  2.70644762e-03 -1.36212148e-02  1.43749826e-03
 -1.40554346e-02  2.45594941e-02  1.30096171e-02 -1.09838247e-02
  2.83203218e-02  1.73198506e-02 -2.10312419e-02  1.64895542e-02
 -2.43284479e-02 -3.07892412e-02 -7.20880926e-05  5.34366630e-03
  2.01263390e-02  2.92245727e-02  2.78769247e-02  2.11300142e-02
  2.81851571e-02 -1.51426978e-02 -2.32402720e-02  2.64026411e-03
  1.38718728e-02 -1.41840652e-02  1.29410550e-02  3.09229996e-02
  5.03600016e-03  2.80673914e-02  6.62196428e-04 -2.78783143e-02
 -2.82097161e-02  5.31065278e-03 -2.16007829e-02  1.81112029e-02
  1.69376768e-02 -1.67378113e-02 -4.95827943e-03 -9.08918679e-04
 -1.46815069e-02 -2.36947276e-02 -3.13329697e-02  1.67968962e-02
  1.62939187e-02 -1.43172294e-02  1.09731369e-02  6.23356551e-03
 -6.12358004e-03 -1.37324370e-02 -2.39017084e-02 -2.50831842e-02
 -2.10889950e-02  4.09106165e-03 -2.75502726e-02  3.21554616e-02
 -8.57555866e-03 -4.28545848e-03  2.43189633e-02 -1.23158097e-03
 -1.99370906e-02  1.02620870e-02  9.93867405e-03 -1.49768218e-03
  3.11830360e-02 -3.20194215e-02  2.93142386e-02 -4.54396755e-03
  1.35264732e-03  1.80841181e-02  6.51855581e-03  2.62866542e-02
  2.79372036e-02 -1.39051415e-02  1.88017078e-02 -2.46673152e-02
 -5.37857413e-04 -2.54517943e-02  2.34999508e-02  2.81408597e-02
  1.62797533e-02  2.54033431e-02 -1.04441531e-02 -1.91834942e-02
 -2.93003023e-03  5.14211878e-03 -5.55353239e-03 -8.80060345e-03
  6.12611510e-03 -1.19079277e-03 -5.29568642e-03 -1.85050182e-02
 -1.05911680e-02 -1.79086477e-02 -1.66295841e-02  1.83033049e-02
  1.62227601e-02  1.79562010e-02 -8.34484026e-03  2.58511566e-02
 -1.62250064e-02 -9.32561234e-03 -1.00100189e-02  2.53346413e-02
  2.59311181e-02  1.69294700e-02 -1.79481097e-02  1.60548855e-02
 -1.80882402e-02  2.72354223e-02  2.45813951e-02 -1.31981373e-02
  1.67079121e-02 -1.96272172e-02  1.38008222e-02 -2.37647779e-02
 -2.63125412e-02  3.90536152e-03 -2.50937380e-02  3.15926671e-02
 -9.93608683e-03 -1.66173168e-02 -1.69347562e-02 -1.61454119e-02
 -7.61483237e-03  7.03380071e-03  2.49495544e-02  2.92454436e-02
  2.39907280e-02 -2.64157504e-02  4.73603792e-03 -3.19782868e-02
 -2.22897530e-03  2.32417900e-02  1.58526469e-02 -1.09853595e-02
 -1.31137967e-02  9.71082970e-03  2.16182657e-02  1.31762587e-03
  2.53152661e-02 -2.70287581e-02  4.97292541e-03  3.15315127e-02
 -1.40930973e-02 -3.05999070e-02  2.39174813e-04 -1.80650167e-02
  2.51732599e-02 -1.90921389e-02 -2.88204141e-02  2.57965662e-02
  1.17232315e-02  2.47468278e-02  2.02938989e-02  1.17134359e-02
 -1.35763735e-03 -6.81457669e-03  1.42391510e-02 -8.97900388e-03
 -5.38453460e-04  2.78025120e-02  5.73221594e-04 -1.92889906e-02
  1.04434937e-02 -1.81637481e-02 -2.10122168e-02 -8.42070207e-03
  8.29319470e-03  2.69924980e-02  3.24502625e-02 -1.79974698e-02
 -4.31789085e-03  1.17968377e-02  9.79450531e-03  2.35511772e-02
  1.74567197e-02  1.67406015e-02 -2.85073072e-02  2.43281852e-02]
